-0.1307213306427,0.316136658191681,-0.224105834960938,-0.185027465224266,-0.110788941383362,0.254082173109055,0.194320112466812,0.36759889125824,-0.202818214893341,-0.395775616168976,-0.42367035150528,0.30442613363266,0.434467315673828,0.0409184098243713,0.00158333778381348,0.184646412730217,-0.0939137190580368,-0.325327754020691,-0.250795364379883,0.0331392884254456,0.372709810733795,0.0332454890012741,-0.227194249629974,-0.164091527462006,-0.0545723438262939,-0.252754926681519,-0.159749284386635,0.19580702483654,-0.18878661096096,-0.277809798717499,0.391349971294403,-0.469537138938904,-0.265787184238434,-0.291068375110626,-0.396989285945892,0.367449760437012,-0.0766122937202454,-0.0372463464736938,-0.135560467839241,0.103511288762093,-0.151509881019592,0.332753777503967,-0.00647032260894775,-0.155863106250763,0.412989795207977,-0.441027760505676,-0.112035766243935,-0.191840931773186,-0.217045292258263,0.18136939406395,0.0613886713981628,-0.115136906504631,0.163465350866318,-0.192913353443146,-0.329605102539063,0.422274887561798,-0.330378711223602,-0.315504908561707,0.193694457411766,0.413480997085571,0.213156849145889,0.0465831458568573,-0.196732580661774,0.177298694849014,-0.143150836229324,0.199020206928253,0.0359262451529503,0.100294187664986,-0.14463672041893,-0.121460437774658,0.175119549036026,-0.222832828760147,-0.166698724031448,0.0244329869747162,-0.0235267356038094,-0.1981141269207,-0.155567198991776,-0.114789187908173,-0.202910453081131,-0.0212636068463326,0.0741562768816948,-0.19348680973053,
